/*!
 * The following copyright notice may not be removed under any circumstances.
 * 
 * Copyright:
 * Digitized data copyright (C) 1992 - 1997 The Monotype Corporation. Rockwell® is
 * a trademark of The Monotype Corporation which may be registered in certain
 * jurisdictions. Portions copyright Microsoft corporation.  All rights reserved.
 * 
 * Trademark:
 * Rockwell® is a trademark of The Monotype Corporation which may be registered in
 * certain jurisdictions.
 * 
 * Description:
 * Rockwell is a distinctive version of a geometric slab serif design, which has
 * retained its popularity since its appearance in the 1930's. The slab serifs, or
 * Egyptians, originated in the nineteenth century when they were used principally
 * for display work. Rockwell is notable for its judiciously clipped slab serifs,
 * and is given a particular sparkle by means of its angular terminals. In more
 * recent years this style of typeface has been increasingly used for text setting
 * where their even colour and visual impact can be fully exploited.
 * 
 * Manufacturer:
 * Monotype Typography
 * 
 * Vendor URL:
 * http://www.monotype.com/html/mtname/ms_welcome.html
 * 
 * License information:
 * http://www.monotype.com/html/mtname/ms_welcome.html
 */
Cufon.registerFont({"w":1130,"face":{"font-family":"Rockwell","font-weight":700,"font-stretch":"normal","units-per-em":"2048","panose-1":"2 6 8 3 3 5 5 2 4 3","ascent":"1638","descent":"-410","x-height":"22","bbox":"-33 -1472 2077 450","underline-thickness":"140","underline-position":"-90","unicode-range":"U+0020-U+007E"},"glyphs":{" ":{"w":512,"k":{"Y":256,"W":205,"V":205,"T":154}},"!":{"d":"288,-485r-86,-525r0,-381r309,0r0,381r-79,525r-144,0xm195,0r0,-335r335,0r0,335r-335,0","w":725},"\"":{"d":"323,-1415v79,0,150,70,149,143v0,32,-8,79,-24,140r-99,383r-48,0r-105,-383v-13,-47,-20,-90,-20,-128v0,-85,64,-155,147,-155xm806,-1415v79,0,149,70,148,143v0,32,-8,79,-24,140r-99,383r-48,0r-105,-383v-13,-47,-19,-90,-19,-128v0,-85,64,-155,147,-155"},"#":{"d":"378,-1052r78,-372r216,0r-79,372r329,0r79,-372r215,0r-78,372r156,0r0,216r-201,0r-58,275r259,0r0,216r-304,0r-78,372r-216,0r78,-372r-329,0r-78,372r-216,0r78,-372r-155,0r0,-216r201,0r57,-275r-258,0r0,-216r304,0xm877,-836r-329,0r-58,275r329,0","w":1368},"$":{"d":"1032,-526v105,294,-119,536,-415,530r0,175r-141,0r0,-175v-227,-36,-370,-145,-383,-412r247,0v-8,106,50,185,136,207r0,-424v-141,-65,-237,-129,-286,-193v-49,-64,-74,-134,-74,-210v0,-196,163,-337,360,-347r0,-52r141,0r0,52v216,14,380,146,380,368r-246,0v-11,-105,-56,-161,-134,-170r0,333v169,72,355,152,415,318xm476,-1176v-75,14,-113,53,-113,118v0,55,38,105,113,150r0,-268xm617,-192v104,5,197,-70,197,-165v0,-87,-66,-156,-197,-207r0,372","w":1153},"%":{"d":"432,-1415v207,0,294,151,293,372v0,248,-98,372,-294,372v-196,0,-294,-124,-294,-372v0,-248,98,-372,295,-372xm429,-799v57,0,85,-81,85,-243v0,-163,-28,-245,-83,-245v-55,0,-83,81,-83,243v0,163,27,245,81,245xm356,0r1007,-1391r179,0r-1007,1391r-179,0xm1465,-726v207,1,293,153,293,372v0,248,-98,372,-294,372v-196,0,-294,-124,-294,-372v0,-248,98,-372,295,-372xm1462,-110v56,0,84,-81,84,-243v0,-163,-27,-245,-82,-245v-55,0,-83,81,-83,243v0,163,27,245,81,245","w":1898},"&":{"d":"730,-1413v192,0,372,107,372,284v0,129,-81,234,-242,316r198,251v75,-101,132,-198,172,-289r329,0r0,223r-170,0v-51,105,-107,193,-168,262r114,143r224,0r0,223r-412,0r-126,-154v-133,119,-282,178,-449,178v-275,0,-494,-180,-496,-427v0,-89,29,-169,86,-240v57,-71,156,-141,298,-209v-73,-84,-109,-168,-109,-253v0,-200,179,-308,379,-308xm741,-1228v-54,0,-113,37,-112,88v0,25,31,76,92,152v89,-40,134,-86,134,-139v0,-55,-56,-101,-114,-101xm394,-448v-1,115,108,210,234,210v80,0,159,-36,238,-109r-265,-334v-138,57,-207,135,-207,233","w":1642},"'":{"d":"287,-1415v79,0,150,70,149,143v0,32,-8,79,-24,140r-99,383r-48,0r-105,-383v-13,-47,-20,-90,-20,-128v0,-85,64,-155,147,-155","w":575},"(":{"d":"648,437v-320,-118,-554,-460,-554,-924v0,-469,235,-803,554,-923r0,199v-87,45,-145,126,-184,237v-69,199,-68,783,1,978v39,110,97,189,183,234r0,199","w":705},")":{"d":"58,-1410v319,118,554,460,554,923v0,464,-233,806,-554,924r0,-199v87,-45,145,-125,184,-236v69,-198,68,-785,-1,-980v-39,-110,-97,-188,-183,-233r0,-199","w":705},"*":{"d":"511,-859v-72,-13,-186,-37,-263,-12r-168,-56r81,-234r167,55v32,50,101,100,208,151v-12,-121,-36,-209,-72,-265r0,-171r244,0r0,171v-47,71,-71,160,-71,265v123,-59,196,-110,219,-151r161,-55r78,234r-155,56v-105,-26,-148,-16,-271,12v67,81,138,135,214,161r103,140r-199,139r-105,-139v-1,-67,-33,-147,-96,-241v-56,89,-84,169,-84,241r-97,139r-201,-139r98,-140v64,-19,134,-72,209,-161","w":1174},"+":{"d":"122,-823r438,0r0,-438r248,0r0,438r438,0r0,249r-438,0r0,438r-248,0r0,-438r-438,0r0,-249","w":1368},",":{"d":"196,366r0,-150v115,-12,169,-85,164,-216r-164,0r0,-335r334,0v-4,178,17,420,-32,542v-43,108,-151,159,-302,159","w":725},"-":{"d":"73,-349r0,-270r559,0r0,270r-559,0","w":705},"\u00ad":{"d":"73,-349r0,-270r559,0r0,270r-559,0","w":705},".":{"d":"195,0r0,-335r335,0r0,335r-335,0","w":725,"k":{" ":154}},"\/":{"d":"748,-1415r284,0r-738,1432r-285,0","w":1040},"0":{"d":"565,18v-155,0,-269,-64,-355,-184v-158,-220,-160,-837,-4,-1062v84,-122,200,-187,359,-187v159,0,274,66,358,187v156,224,156,843,-3,1062v-87,119,-200,184,-355,184xm563,-208v71,0,115,-57,135,-170v39,-215,37,-526,-10,-688v-24,-83,-66,-124,-123,-124v-58,0,-97,44,-124,128v-47,150,-47,584,1,730v27,82,65,124,121,124"},"1":{"d":"233,0r0,-223r192,0r0,-945r-204,0r0,-223r510,0r0,1168r182,0r0,223r-680,0"},"2":{"d":"564,-1415v306,-15,518,265,392,547v-63,142,-125,161,-273,270v-132,97,-217,171,-251,227v-34,56,-54,105,-60,148r405,0r0,-181r224,0r-12,404r-891,0v-6,-376,120,-493,315,-682v103,-100,175,-168,209,-214v34,-46,51,-98,51,-155v0,-81,-56,-148,-133,-147v-55,0,-96,22,-122,68v-26,46,-42,121,-46,224r-255,-12v-8,-337,148,-482,447,-497"},"3":{"d":"1025,-401v0,264,-207,419,-471,419v-298,0,-458,-148,-481,-443r268,-22v3,163,65,245,184,245v110,0,184,-95,183,-209v-2,-121,-72,-212,-200,-208v-16,0,-37,1,-62,2r0,-234v140,4,224,-65,227,-184v3,-88,-61,-155,-148,-155v-99,0,-148,61,-148,184r-261,-20v5,-245,182,-389,427,-389v255,0,431,126,432,366v0,147,-69,253,-208,316v172,56,258,167,258,332"},"4":{"d":"1030,-204r0,204r-558,0r0,-204r154,0r0,-179r-511,0v-24,-71,-49,-131,-74,-178r598,-854r274,0r0,842r135,0r0,190r-135,0r0,179r117,0xm626,-573r0,-485r-346,485r346,0"},"5":{"d":"1025,-458v-2,283,-178,476,-485,476v-278,0,-432,-154,-467,-392r263,-31v18,133,79,200,184,200v128,-1,187,-95,187,-232v0,-165,-60,-247,-181,-247v-67,0,-122,36,-167,109r-223,-111r41,-705r781,0r0,327r-203,0r-19,-104r-358,0r-19,334v73,-53,152,-79,237,-79v264,0,431,202,429,455"},"6":{"d":"1038,-459v0,293,-154,477,-427,477v-169,0,-295,-57,-377,-170v-82,-113,-124,-290,-124,-532v0,-259,47,-446,140,-560v93,-114,219,-171,380,-171v231,0,361,123,390,370r-239,22v-28,-118,-82,-177,-162,-177v-65,0,-115,36,-151,110v-36,74,-55,171,-57,290v65,-61,147,-92,246,-92v231,0,381,176,381,433xm756,-442v0,-129,-61,-222,-171,-222v-59,0,-117,20,-174,60v3,154,22,260,55,316v33,56,79,84,140,84v108,0,150,-107,150,-238"},"7":{"d":"369,-223v14,-299,205,-759,350,-951r-358,0r0,195r-222,0r0,-412r869,0r0,171v-133,148,-331,703,-320,997r176,0r0,223r-671,0r0,-223r176,0"},"8":{"d":"568,-1415v258,0,445,128,445,359v0,139,-67,248,-202,326v162,61,243,176,243,344v0,268,-196,404,-490,404v-292,0,-484,-150,-484,-410v0,-163,83,-276,248,-338v-137,-77,-206,-184,-206,-320v1,-233,194,-365,446,-365xm568,-828v101,0,162,-80,162,-185v0,-107,-56,-187,-162,-186v-104,1,-163,75,-163,189v0,101,62,182,163,182xm569,-199v115,0,190,-91,190,-214v0,-122,-73,-220,-190,-220v-115,0,-189,97,-189,220v0,123,73,214,189,214"},"9":{"d":"91,-945v0,-269,171,-470,446,-470v156,0,276,55,360,165v84,110,126,294,126,549v0,479,-171,719,-512,719v-234,0,-383,-142,-396,-374r237,-23v28,119,81,178,160,178v124,0,195,-132,212,-396v-73,58,-160,87,-259,87v-221,-2,-374,-190,-374,-435xm373,-963v1,123,52,232,175,230v55,0,113,-21,176,-64v1,-113,-15,-209,-50,-286v-34,-74,-86,-111,-155,-111v-101,0,-147,112,-146,231"},":":{"d":"195,-635r0,-333r335,0r0,333r-335,0xm195,0r0,-335r335,0r0,335r-335,0","w":725,"k":{" ":154}},";":{"d":"195,-642r0,-335r335,0r0,335r-335,0xm195,366r0,-150v115,-12,169,-85,164,-216r-164,0r0,-335r335,0v-10,258,47,571,-139,660v-52,25,-117,41,-196,41","w":725,"k":{" ":154}},"<":{"d":"1246,-120r-1124,-466r0,-225r1124,-466r0,265r-778,313r778,314r0,265","w":1368},"=":{"d":"122,-1064r1124,0r0,248r-1124,0r0,-248xm122,-581r1124,0r0,248r-1124,0r0,-248","w":1368},">":{"d":"122,-1277r1124,466r0,225r-1124,466r0,-265r778,-314r-778,-313r0,-265","w":1368},"?":{"d":"1061,-1007v3,237,-182,404,-432,380r-33,146r-143,0r-29,-368v145,53,319,-13,319,-167v0,-109,-83,-184,-190,-184v-125,0,-195,85,-172,208r-309,0v-1,-284,208,-417,501,-423v289,-6,484,151,488,408xm355,0r0,-335r335,0r0,335r-335,0","w":1153},"@":{"d":"244,-450v0,454,346,716,844,716v323,0,553,-88,690,-265r213,0v-129,281,-464,449,-868,449v-353,0,-618,-84,-795,-252v-177,-168,-266,-387,-266,-659v0,-409,213,-739,494,-887v154,-81,331,-124,532,-124v480,0,850,309,850,764v0,367,-293,727,-656,727v-105,0,-167,-38,-187,-114v-77,76,-168,114,-275,114v-233,0,-381,-186,-381,-427v0,-161,51,-310,152,-448v101,-138,230,-208,387,-208v120,0,208,45,265,135r25,-111r264,0r-151,717v-9,46,-14,76,-14,89v0,33,13,49,39,49v33,0,78,-22,134,-65v108,-82,218,-267,218,-461v0,-157,-61,-289,-172,-407v-189,-202,-663,-213,-938,-74v-232,118,-404,414,-404,742xm1188,-656v0,-119,-61,-229,-185,-229v-91,0,-165,50,-221,149v-56,99,-85,215,-85,348v0,120,67,224,179,224v94,0,169,-52,226,-156v57,-104,86,-217,86,-336","w":2005},"A":{"d":"1432,-235r0,235r-684,0r0,-235r178,0r-66,-239r-361,0r-74,239r186,0r0,235r-616,0r0,-235r172,0r271,-921r-185,0r0,-235r908,0r0,235r-187,0r292,921r166,0xm803,-678r-116,-419r-125,419r241,0","w":1430,"k":{"y":61,"w":20,"v":61,"Y":61,"W":61,"V":92,"U":31,"T":61,"Q":61,"O":61,"G":41,"C":41}},"B":{"d":"68,0r0,-235r171,0r0,-921r-171,0r0,-235r635,0v268,5,376,2,492,143v51,62,75,137,75,222v0,135,-65,231,-196,287v167,62,250,173,250,333v0,191,-125,327,-278,370v-82,23,-196,36,-343,36r-635,0xm909,-1005v0,-128,-74,-149,-218,-151r-90,0r0,314r102,0v134,-2,206,-33,206,-163xm952,-416v0,-154,-87,-189,-249,-191r-102,0r0,372r102,0v169,-3,249,-28,249,-181","w":1430,"k":{"U":31,".":82,",":82}},"C":{"d":"857,17v-470,0,-756,-279,-756,-713v0,-444,293,-717,733,-717v166,0,305,43,417,130r0,-108r235,0r0,490r-235,0v-67,-176,-182,-264,-347,-264v-267,0,-410,216,-413,472v-3,252,155,457,392,454v212,-2,348,-162,387,-359r274,131v-104,323,-333,484,-687,484","w":1599,"k":{"A":41,".":82,",":82}},"D":{"d":"48,0r0,-235r211,0r0,-921r-211,0r0,-235v320,7,727,-28,994,25v292,58,499,315,499,674v0,296,-134,521,-344,616v-153,69,-215,76,-447,76r-702,0xm707,-235v321,7,450,-146,455,-456v3,-200,-77,-363,-210,-423v-81,-37,-205,-45,-332,-42r0,921r87,0","w":1642,"k":{"Y":102,"W":102,"V":82,"A":61,".":154,",":154}},"E":{"d":"68,0r0,-235r167,0r0,-921r-167,0r0,-235r1226,0r0,441r-266,0r0,-206r-431,0r0,321r348,0r0,235r-348,0r0,365r431,0r0,-208r266,0r0,443r-1226,0","w":1366},"F":{"d":"58,0r0,-235r199,0r0,-921r-199,0r0,-235r1245,0r0,429r-266,0r0,-194r-418,0r0,322r301,0r0,235r-301,0r0,364r214,0r0,235r-775,0","w":1323,"k":{"o":205,"e":205,"a":205,"A":123,".":307,",":307}},"G":{"d":"494,-723v0,286,157,484,409,487v174,2,284,-92,324,-231r-245,0r0,-235r652,0v1,344,-128,519,-358,634v-116,58,-246,85,-391,85v-471,0,-780,-279,-780,-715v0,-441,299,-715,736,-715v187,0,332,45,436,136r0,-114r236,0r0,494r-236,0v-39,-153,-203,-269,-383,-269v-233,0,-400,188,-400,443","w":1729,"k":{".":164,",":164}},"H":{"d":"63,0r0,-235r174,0r0,-921r-174,0r0,-235r672,0r0,235r-146,0r0,305r379,0r0,-305r-141,0r0,-235r668,0r0,235r-175,0r0,921r175,0r0,235r-668,0r0,-235r141,0r0,-380r-379,0r0,380r146,0r0,235r-672,0","w":1556},"I":{"d":"45,0r0,-235r211,0r0,-921r-211,0r0,-235r786,0r0,235r-213,0r0,921r213,0r0,235r-786,0","w":874},"J":{"d":"607,-27v5,290,-145,451,-412,455v-63,0,-132,-8,-209,-25r0,-252v39,11,74,17,104,17v126,-4,155,-68,155,-208r0,-1116r-207,0r0,-235r758,0r0,235r-189,0r0,1129","w":831,"k":{"u":51,"o":82,"e":82,"a":61,"A":31,".":102,",":102}},"K":{"d":"41,0r0,-235r187,0r0,-921r-187,0r0,-235r725,0r0,235r-176,0r0,921r162,0r0,235r-711,0xm860,0r0,-235r162,0r-421,-495r454,-426r-166,0r0,-235r679,0r0,235r-170,0r-392,384r456,537r144,0r0,235r-746,0","w":1599,"k":{"y":123,"u":41,"o":20,"e":20,"O":61}},"L":{"d":"57,0r0,-235r199,0r0,-921r-199,0r0,-235r764,0r0,235r-203,0r0,921r411,0r0,-430r271,0r0,665r-1243,0","w":1323,"k":{"Y":154,"W":123,"V":154,"T":51}},"M":{"d":"56,0r0,-235r180,0r0,-921r-180,0r0,-235r697,0r306,816r307,-816r711,0r0,235r-180,0r0,921r180,0r0,235r-700,0r0,-235r168,0r0,-921r-33,0r-431,1156r-150,0r-436,-1156r-33,0r0,921r182,0r0,235r-588,0","w":2134},"N":{"d":"55,0r0,-235r186,0r0,-921r-186,0r0,-235r583,0r513,868r0,-633r-181,0r0,-235r624,0r0,235r-195,0r0,1166r-310,0r-600,-1031r0,786r175,0r0,235r-609,0","w":1622,"k":{"A":31,".":164,",":164}},"O":{"d":"874,-1413v240,0,426,72,566,208v273,264,273,752,0,1015v-141,136,-327,207,-566,207v-249,0,-437,-73,-573,-213v-266,-274,-265,-743,5,-1008v139,-137,327,-209,568,-209xm1258,-704v0,-251,-147,-458,-384,-455v-239,3,-383,197,-383,472v0,251,152,451,383,451v236,0,384,-198,384,-468","w":1749,"k":{"Y":154,"X":154,"W":154,"V":154,"T":51,"A":123,".":205,",":205}},"P":{"d":"794,-1391v315,-5,535,152,535,443v0,238,-142,385,-349,424v-95,18,-252,20,-380,19r0,270r194,0r0,235r-733,0r0,-235r177,0r0,-921r-177,0r0,-235r733,0xm654,-737v208,2,284,-50,293,-211v5,-93,-55,-177,-122,-196v-39,-11,-151,-13,-225,-12r0,419r54,0","w":1366,"k":{"o":51,"e":51,"a":31,"A":154,".":328,",":328}},"Q":{"d":"1298,347v-215,29,-401,-178,-588,-178v-70,0,-138,28,-204,84r-89,-139v54,-64,136,-103,247,-117v-315,-61,-564,-334,-563,-695v0,-191,66,-358,199,-501v133,-143,325,-214,574,-214v249,0,441,71,574,214v133,143,199,310,199,501v0,397,-303,701,-699,713v130,44,283,134,435,109xm1258,-704v0,-251,-147,-458,-384,-455v-239,3,-383,197,-383,472v0,251,152,451,383,451v236,0,384,-198,384,-468","w":1749,"k":{"U":51,".":205,",":205}},"R":{"d":"1497,-235r0,235r-424,0r-314,-609r-159,0r0,374r174,0r0,235r-727,0r0,-235r191,0r0,-921r-191,0r0,-235r839,0v158,0,272,39,342,119v70,80,104,170,104,271v0,158,-80,273,-241,346r226,420r180,0xm954,-995v0,-113,-81,-161,-197,-161r-157,0r0,325r124,0v153,0,230,-55,230,-164","w":1493,"k":{"Y":82,"W":82,"V":82,"U":41,"T":51,"O":51}},"S":{"d":"1019,-397v6,256,-172,414,-404,414v-122,0,-216,-45,-282,-135r0,118r-236,0r0,-474r236,0v-1,151,85,248,214,253v81,3,154,-70,152,-149v0,-43,-14,-79,-43,-108v-29,-29,-81,-62,-157,-99v-161,-78,-269,-147,-327,-206v-58,-59,-87,-139,-87,-240v0,-225,170,-381,373,-382v111,0,196,43,257,129r0,-115r235,0r0,423r-235,0v-10,-116,-86,-202,-199,-205v-72,-1,-139,43,-138,112v0,29,11,55,33,81v50,59,358,181,429,234v99,74,175,185,179,349","w":1087,"k":{".":51,",":51}},"T":{"d":"302,0r0,-235r209,0r0,-921r-209,0r0,324r-239,0r0,-559r1261,0r0,559r-236,0r0,-324r-215,0r0,921r209,0r0,235r-780,0","w":1386,"k":{"w":-41,"o":164,"e":164,"a":82,"O":51,"A":61,".":164,"-":205,",":164}},"U":{"d":"37,-1156r0,-235r664,0r0,235r-137,0r0,629v4,149,-6,210,66,273v56,49,175,48,232,2v83,-67,74,-116,74,-293r0,-611r-135,0r0,-235r554,0r0,235r-170,0r0,696v-3,184,-4,237,-84,334v-73,88,-224,143,-392,143v-262,0,-455,-99,-492,-302v-41,-225,-9,-604,-15,-871r-165,0","w":1386,"k":{"A":51,".":164,",":164}},"V":{"d":"577,9r-414,-1165r-166,0r0,-235r710,0r0,235r-180,0r234,697r235,-697r-177,0r0,-235r615,0r0,235r-169,0r-399,1165r-289,0","w":1430,"k":{"u":92,"o":205,"i":31,"e":205,"a":205,"O":154,"G":123,"A":92,";":102,":":102,".":256,"-":205,",":256}},"W":{"d":"542,9r-397,-1165r-147,0r0,-235r627,0r0,235r-144,0r226,668r212,-668r-126,0r0,-235r500,0r0,235r-129,0r228,668r219,-668r-139,0r0,-235r557,0r0,235r-151,0r-384,1165r-260,0r-219,-635r-207,635r-266,0","w":2028,"k":{"y":102,"u":82,"o":205,"i":31,"h":-51,"e":205,"a":205,"O":154,"A":61,";":123,":":123,".":307,"-":205,",":307}},"X":{"d":"-3,0r0,-235r205,0r339,-479r-339,-442r-191,0r0,-235r715,0r0,222r-133,0r207,259r188,-259r-126,0r0,-222r617,0r0,235r-193,0r-330,457r364,464r200,0r0,235r-738,0r0,-226r139,0r-218,-285r-207,285r143,0r0,226r-642,0","w":1516},"Y":{"d":"347,0r0,-235r195,0r0,-376r-377,-545r-170,0r0,-235r696,0r0,235r-137,0r204,340r207,-340r-143,0r0,-235r613,0r0,235r-171,0r-360,545r0,376r194,0r0,235r-751,0","w":1430,"k":{"u":164,"o":256,"i":31,"e":256,"a":205,"O":154,"A":61,";":154,":":154,".":164,"-":256,",":164}},"Z":{"d":"102,0r0,-235r660,-921r-387,0r0,253r-236,0r0,-488r1074,0r0,209r-679,947r458,0r0,-267r235,0r0,502r-1125,0","w":1323},"[":{"d":"226,416r0,-1807r564,0r0,208r-255,0r0,1392r255,0r0,207r-564,0","w":854},"\\":{"d":"293,-1415r739,1432r-285,0r-738,-1432r284,0","w":1040},"]":{"d":"628,-1391r0,1807r-564,0r0,-207r255,0r0,-1392r-255,0r0,-208r564,0","w":854},"^":{"d":"114,-592r376,-799r223,0r366,799r-284,0r-198,-489r-197,489r-286,0","w":1194},"_":{"d":"-12,154r1048,0r0,102r-1048,0r0,-102","w":1024},"`":{"d":"495,-1095r-165,0r-363,-318r375,0","w":682},"a":{"d":"700,-625v1,-101,-78,-169,-184,-169v-69,0,-129,25,-178,76r-249,-45v72,-153,228,-229,469,-229v225,0,384,60,432,222v37,125,14,380,19,547r156,0r0,223r-465,0r0,-76v-83,60,-171,90,-264,90v-184,0,-353,-118,-353,-302v0,-195,183,-327,394,-327v65,0,139,16,223,49r0,-59xm381,-307v0,70,54,129,125,129v57,0,122,-34,194,-101r0,-79v-75,-47,-134,-70,-179,-70v-70,0,-140,45,-140,121","w":1194,"k":{"y":82,"w":51,"v":41,"p":41}},"b":{"d":"1200,-490v0,284,-154,504,-411,504v-107,0,-201,-42,-283,-125r0,111r-477,0r0,-223r168,0r0,-945r-168,0r0,-223r477,0r0,532v77,-89,169,-133,275,-133v258,-2,419,231,419,502xm694,-226v128,0,189,-111,189,-266v0,-146,-58,-250,-186,-250v-129,0,-194,105,-194,264v0,140,67,252,191,252","w":1280,"k":{"y":41,"l":51,"b":41,".":82,",":82}},"c":{"d":"78,-485v0,-290,223,-498,491,-498v105,0,202,32,293,95r0,-80r211,0r0,393r-220,0v-50,-108,-128,-162,-235,-162v-139,-1,-223,104,-223,248v0,163,80,268,221,268v113,0,202,-75,246,-155r240,106v-89,195,-246,292,-470,292v-323,0,-554,-193,-554,-507","w":1153,"k":{"l":31,"k":31,".":41,",":41}},"d":{"d":"77,-489v0,-259,176,-503,420,-503v113,0,206,44,279,131r0,-307r-151,0r0,-223r460,0r0,1168r159,0r0,223r-468,0r0,-115v-86,86,-179,129,-280,129v-248,0,-419,-245,-419,-503xm585,-229v124,-4,194,-103,194,-257v0,-158,-70,-257,-195,-257v-130,0,-190,117,-190,256v0,134,61,262,191,258","w":1280,"k":{"y":41,"w":31,"v":31,"d":41}},"e":{"d":"384,-420v0,155,111,242,245,242v74,0,149,-38,224,-114r240,77v-101,158,-258,237,-472,237v-322,0,-540,-185,-543,-490v-3,-294,228,-531,525,-524v328,9,507,231,502,572r-721,0xm794,-592v-14,-105,-85,-195,-207,-195v-113,0,-179,65,-198,195r405,0","w":1174,"k":{"y":41,"w":31,"p":41,".":41,",":41}},"f":{"d":"204,-1057v2,-215,142,-358,376,-358v151,0,259,45,323,136r-224,175v-20,-69,-49,-104,-86,-104v-53,0,-80,45,-80,134r0,106r152,0r0,224r-152,0r0,521r152,0r0,223r-601,0r0,-223r140,0r0,-521r-130,0r0,-224r130,0r0,-89","w":725},"g":{"d":"78,-485v0,-267,173,-499,420,-498v113,0,206,44,279,133r0,-118r469,0r0,224r-160,0r0,715v0,319,-169,479,-506,479v-193,0,-337,-35,-432,-105r150,-205v189,123,501,104,479,-187r0,-74v-101,90,-199,135,-294,135v-239,0,-405,-237,-405,-499xm584,-235v120,0,194,-108,194,-246v0,-142,-64,-252,-194,-253v-130,-1,-189,115,-189,250v0,134,64,249,189,249","w":1280,"k":{"o":41,"g":31,"e":41,".":123,",":123}},"h":{"d":"783,-621v0,-83,-24,-119,-98,-119v-46,0,-101,20,-165,61r0,456r138,0r0,223r-602,0r0,-223r156,0r0,-945r-156,0r0,-223r464,0r0,501v97,-68,189,-102,275,-102v198,0,297,119,297,357r0,412r142,0r0,223r-451,0r0,-621","w":1280,"k":{"y":82}},"i":{"d":"391,-1076v-89,0,-169,-80,-169,-169v0,-91,78,-170,169,-170v92,0,169,79,169,170v0,91,-78,169,-169,169xm86,-744r0,-224r456,0r0,745r144,0r0,223r-600,0r0,-223r147,0r0,-521r-147,0","w":725},"j":{"d":"375,-1070v-92,0,-169,-79,-169,-169v0,-89,80,-169,169,-169v91,0,169,78,169,169v0,91,-78,169,-169,169xm44,178v146,-3,186,-27,186,-178r0,-744r-150,0r0,-224r459,0r0,937v-3,230,-22,328,-162,409v-75,44,-258,58,-391,45r0,-249v21,3,40,4,58,4","w":725},"k":{"d":"70,0r0,-223r156,0r0,-945r-156,0r0,-223r464,0r0,879r333,-271r-205,0r0,-185r585,0r0,196r-97,0r-283,242r258,307r134,0r0,223r-297,0r-428,-512r0,300r117,0r0,212r-581,0","w":1323,"k":{"o":82,"e":61}},"l":{"d":"75,0r0,-223r152,0r0,-945r-152,0r0,-223r461,0r0,1168r139,0r0,223r-600,0","w":725,"k":{"y":31,"w":31}},"m":{"d":"1523,-983v247,0,328,119,328,391r0,369r160,0r0,223r-469,0r0,-567v0,-101,-44,-152,-131,-152v-69,0,-143,22,-223,66r0,430r160,0r0,223r-469,0r0,-558v0,-107,-42,-161,-126,-161v-65,0,-140,22,-225,66r0,430r160,0r0,223r-629,0r0,-223r160,0r0,-521r-160,0r0,-224r469,0r0,79v200,-125,468,-138,604,39v125,-89,255,-133,391,-133","w":2028,"k":{"y":72}},"n":{"d":"798,-586v-1,-92,-13,-137,-92,-137v-57,0,-116,21,-176,63r0,437r149,0r0,223r-606,0r0,-223r148,0r0,-521r-148,0r0,-224r457,0r0,90v93,-70,188,-105,284,-105v195,0,293,125,293,374r0,386r146,0r0,223r-455,0r0,-586","w":1280,"k":{"y":72,"v":31}},"o":{"d":"1096,-485v0,301,-218,507,-509,507v-288,0,-509,-205,-509,-507v0,-302,221,-507,509,-507v289,0,509,205,509,507xm395,-478v0,139,56,263,191,260v135,-3,193,-111,193,-273v0,-147,-61,-263,-193,-263v-127,0,-191,92,-191,276","w":1174,"k":{"y":51,"x":51,"w":31,"v":31,".":82,",":82}},"p":{"d":"1206,-475v0,269,-157,497,-418,497v-103,0,-198,-40,-283,-121r0,313r194,0r0,223r-666,0r0,-223r163,0r0,-958r-136,0r0,-224r445,0r0,121v86,-91,182,-136,288,-136v258,0,413,252,413,508xm700,-222v129,0,189,-106,189,-259v0,-150,-60,-253,-191,-253v-131,0,-196,106,-196,257v0,139,69,255,198,255","w":1280,"k":{"y":41,".":82,",":82}},"q":{"d":"74,-479v0,-255,158,-504,411,-504v105,0,200,45,286,136r0,-121r476,0r0,224r-167,0r0,958r167,0r0,223r-666,0r0,-223r190,0r0,-313v-83,81,-177,121,-282,121v-265,0,-415,-243,-415,-501xm582,-734v-128,0,-191,104,-191,248v0,148,56,266,188,266v127,0,194,-111,194,-268v0,-141,-65,-246,-191,-246","w":1280},"r":{"d":"517,-722v38,-148,183,-282,387,-260r0,292v-167,3,-249,26,-313,140v-48,86,-50,197,-48,327r193,0r0,223r-681,0r0,-223r179,0r0,-521r-168,0r0,-224r451,0r0,246","w":918,"k":{"y":-123,"v":-154,"u":-113,"t":-92,"r":-61,"p":-102,"n":-102,"m":-102,"i":-51,".":82,",":82}},"s":{"d":"971,-301v-1,205,-163,323,-389,323v-115,0,-194,-23,-237,-70r0,48r-226,0r0,-333r226,0v4,96,105,149,211,149v83,0,161,-27,161,-94v0,-25,-13,-45,-39,-59v-26,-14,-77,-27,-153,-40v-157,-25,-270,-63,-339,-115v-69,-52,-104,-121,-104,-206v1,-174,165,-285,358,-285v87,0,169,16,245,48r0,-33r221,0r0,281r-221,0v-20,-67,-91,-101,-212,-101v-89,0,-134,25,-134,74v0,19,8,34,27,42v76,33,348,73,409,97v108,43,197,133,196,274","w":1044,"k":{".":61,",":61}},"t":{"d":"471,-325v2,75,7,94,81,96v29,0,61,-7,97,-20r0,214v-79,33,-157,49,-233,49v-169,0,-254,-84,-254,-252r0,-506r-123,0r0,-224r123,0r0,-152r309,-222r0,374r178,0r0,224r-178,0r0,419","w":705},"u":{"d":"492,-365v2,91,17,125,102,125v52,0,109,-23,171,-69r0,-435r-149,0r0,-224r458,0r0,745r156,0r0,223r-465,0r0,-82v-93,64,-187,96,-282,96v-186,1,-299,-112,-299,-300r0,-458r-145,0r0,-224r453,0r0,603","w":1280},"v":{"d":"463,14r-327,-758r-140,0r0,-224r587,0r0,224r-120,0r151,440r178,-440r-127,0r0,-224r513,0r0,224r-138,0r-314,758r-263,0","w":1174,"k":{"o":41,"e":51,"a":31,".":205,",":205}},"w":{"d":"378,14r-254,-758r-123,0r0,-224r527,0r0,224r-106,0r119,360r198,-584r256,0r192,584r119,-360r-109,0r0,-224r468,0r0,224r-121,0r-251,758r-268,0r-190,-569r-187,569r-270,0","w":1665,"k":{"o":51,"h":51,"e":51,"a":31,".":205,",":205}},"x":{"d":"46,0r0,-223r140,0r209,-250r-209,-271r-140,0r0,-224r372,0r174,265r191,-265r292,0r0,224r-130,0r-196,232r228,289r130,0r0,223r-371,0r-188,-272r-202,272r-300,0","w":1153,"k":{"e":51}},"y":{"d":"253,437r0,-223r186,0r64,-173r-352,-785r-140,0r0,-224r580,0r0,224r-114,0r161,435r172,-435r-126,0r0,-224r509,0r0,224r-138,0r-464,1181r-338,0","w":1217,"k":{"o":51,"e":82,"a":41,".":287,",":287}},"z":{"d":"72,0r0,-203r569,-569r-311,0r0,150r-211,0r0,-346r892,0r0,203r-569,570r365,0r0,-166r204,0r0,361r-939,0","w":1087,"k":{"o":41,"e":41}},"{":{"d":"278,-9v0,-233,-16,-340,-219,-355r0,-228v206,-15,219,-126,219,-364v0,-250,15,-309,147,-392v54,-35,189,-46,318,-43r0,228v-157,6,-200,-2,-204,137v-9,335,-6,426,-188,548v64,33,111,82,141,146v30,64,46,198,46,401v0,132,55,133,204,138r0,227v-218,4,-379,-24,-434,-166v-20,-54,-30,-146,-30,-277","w":788},"|":{"d":"501,-1415r249,0r0,1865r-249,0r0,-1865","w":1251},"}":{"d":"510,-947v0,232,17,340,219,355r0,228v-207,13,-217,126,-219,363v-2,237,-15,325,-159,395v-67,33,-186,43,-306,40r0,-227v157,-6,200,1,204,-138v9,-322,3,-431,188,-548v-63,-33,-110,-81,-141,-145v-31,-64,-46,-199,-46,-402v0,-132,-55,-132,-204,-137r0,-228v217,-5,380,25,434,166v20,54,30,147,30,278","w":788},"~":{"d":"840,-495v-172,0,-351,-161,-496,-161v-100,0,-203,50,-309,151r0,-255v109,-95,219,-142,328,-142v65,0,155,28,270,85v102,51,178,76,229,76v90,0,189,-51,297,-152r0,256v-108,95,-214,142,-319,142","w":1194},"\u00a0":{"w":512,"k":{"Y":256,"W":205,"V":205,"T":154}}}});
